digraph Tree {
node [shape=box] ;
0 [label="X[0] <= 3.364\nentropy = 2.0\nsamples = 1000\nvalue = [250, 250, 250, 250]"] ;
1 [label="X[0] <= -4.157\nentropy = 1.0\nsamples = 500\nvalue = [0, 0, 250, 250]"] ;
0 -> 1 [labeldistance=2.5, labelangle=45, headlabel="True"] ;
2 [label="entropy = 0.0\nsamples = 250\nvalue = [0, 0, 250, 0]"] ;
1 -> 2 ;
3 [label="entropy = 0.0\nsamples = 250\nvalue = [0, 0, 0, 250]"] ;
1 -> 3 ;
4 [label="X[1] <= -6.425\nentropy = 1.0\nsamples = 500\nvalue = [250, 250, 0, 0]"] ;
0 -> 4 [labeldistance=2.5, labelangle=-45, headlabel="False"] ;
5 [label="entropy = 0.0\nsamples = 250\nvalue = [0, 250, 0, 0]"] ;
4 -> 5 ;
6 [label="entropy = 0.0\nsamples = 250\nvalue = [250, 0, 0, 0]"] ;
4 -> 6 ;
}